//-----------------------------------------------------------------------------
// Network: wino
// Inputs:
//                                                  Offset       Scale
//    SO2tota                                    1.331e+02   4.039e+01
//    alcohol                                    1.086e+01   1.314e+00
//    sulfate                                    4.936e-01   1.231e-01
//    SO2free                                    3.480e+01   1.591e+01
//
// Created: Thu Apr 27 11:08:10 2017 by netwrite.py
//-----------------------------------------------------------------------------
#include <cmath>
#include <vector>
#include <iostream>
#include <stdlib.h>
//-----------------------------------------------------------------------------
// Make following visible only to this programming unit
namespace {
  // NOTE: Network indices start at 0
  static const int nnetworks=100;
  static const int ninputs  =4;
  static const int nhidden  =5;
  static const int nparams  =31;

  static const double mean[ninputs]={
  1.3310e+02,
  1.0860e+01,
  4.9360e-01,
  3.4800e+01
  };

  static const double sigma[ninputs]={
  4.0390e+01,
  1.3140e+00,
  1.2310e-01,
  1.5910e+01
  };

  static const double weight[nnetworks][nparams]={
    {-4.7000e-01, 1.0620e+00,-1.0090e+00, 2.1900e-01,-4.2300e-01,-3.7300e+00,
      5.7900e-01,-1.8460e+00,-6.6100e-01,-3.8700e-01,-3.7680e+00, 1.2780e+00,
     -6.8600e-01, 8.1700e-01,-1.1480e+00,-1.3040e+00,-1.2600e-01,-5.8500e-01,
     -9.9900e-01, 4.1800e-01,-1.1070e+00,-2.8000e-01,-2.4400e-01, 2.1000e-02,
     -6.4500e-01,-1.0950e+00,-1.5950e+00, 3.4560e+00,-1.3930e+00,-1.7790e+00,
     -2.1140e+00
    },
    {-2.8700e-01, 8.4200e-01,-9.0000e-01, 5.7000e-02,-3.1500e-01,-3.4200e+00,
      2.7600e-01,-2.1750e+00,-1.7600e-01, 4.1000e-02,-2.5530e+00, 1.2610e+00,
     -2.2920e+00, 2.0600e-01,-9.3200e-01,-9.0400e-01,-8.9900e-01,-1.3500e-01,
     -3.9300e-01, 2.7600e-01,-1.6840e+00, 4.1000e-02,-6.2000e-02, 3.4200e-01,
     -1.2240e+00,-5.5400e-01,-2.1400e+00, 1.5730e+00, 4.8000e-02,-1.5030e+00,
     -9.0800e-01
    },
    {-2.6800e-01, 9.7700e-01,-1.2680e+00,-4.0200e-01,-2.4500e-01,-2.8020e+00,
      2.5300e-01,-1.6210e+00,-2.6400e-01,-2.1500e-01,-2.3570e+00, 2.9190e+00,
     -1.9900e+00, 1.8680e+00,-2.7830e+00,-1.0820e+00,-1.6080e+00,-4.7700e-01,
     -6.8300e-01, 5.4300e-01,-2.1800e+00, 3.1000e-02,-1.1900e-01,-9.4000e-02,
     -1.2540e+00,-4.3800e-01,-1.3210e+00, 1.7470e+00,-5.5000e-01,-9.0100e-01,
     -1.1310e+00
    },
    {-2.5300e-01, 7.2300e-01,-8.9300e-01,-1.5300e-01,-1.6800e-01,-2.0060e+00,
      3.4100e-01,-1.4990e+00,-7.1000e-02,-3.9400e-01,-3.1530e+00, 1.8280e+00,
     -2.5710e+00, 4.6600e-01,-1.6070e+00,-8.4400e-01,-9.6500e-01, 9.9000e-02,
     -9.4100e-01, 5.2400e-01,-1.3050e+00,-5.0000e-01,-4.7500e-01, 5.5300e-01,
     -7.3300e-01,-5.9100e-01,-2.6800e+00, 1.9930e+00,-5.4300e-01,-9.8800e-01,
     -1.2210e+00
    },
    {-2.2400e-01, 1.1220e+00,-1.3940e+00,-2.9800e-01,-6.9000e-02,-1.0070e+00,
     -7.7300e-01,-1.1170e+00,-8.0000e-01,-4.3400e-01, 2.6000e-01, 1.7530e+00,
      1.4780e+00,-3.7500e-01, 6.0200e-01,-4.8500e-01,-6.2000e-01,-1.2800e-01,
     -5.9700e-01, 3.1000e-02,-1.1530e+00,-2.7400e-01,-4.9700e-01, 2.0900e-01,
     -1.2820e+00,-9.2700e-01,-1.4920e+00, 1.9500e-01,-2.9900e-01,-8.3400e-01,
     -1.1690e+00
    },
    {-2.4300e-01, 9.6700e-01,-1.4230e+00,-2.5800e-01,-1.8800e-01,-1.0560e+00,
      6.1000e-02,-2.1000e-01,-2.1960e+00,-1.8900e-01,-1.6590e+00, 6.7400e-01,
     -1.1300e+00, 2.2200e-01, 1.9900e-01,-3.2270e+00,-2.1220e+00,-5.0000e-03,
     -1.9280e+00, 3.4800e-01,-2.2550e+00,-2.6000e-01,-1.1000e-01, 4.7800e-01,
     -1.4850e+00,-1.0930e+00,-1.7160e+00, 2.5000e-01, 6.6400e-01,-9.2300e-01,
     -7.2800e-01
    },
    {-2.9100e-01, 1.1820e+00,-1.2860e+00,-2.9000e-01,-4.0300e-01, 5.2600e-01,
     -6.3200e-01,-2.3940e+00, 2.8400e-01,-2.5000e-02,-4.6220e+00, 9.4700e-01,
     -2.4810e+00,-1.5550e+00,-2.8700e-01, 1.8100e-01, 1.0900e-01,-8.2900e-01,
     -5.3000e-01, 4.0000e-03,-1.8940e+00,-1.0100e+00,-2.1500e-01, 4.2000e-02,
      7.5000e-02,-9.5200e-01,-1.0460e+00, 7.3000e-02, 1.0040e+00,-7.2600e-01,
     -1.8150e+00
    },
    {-8.3200e-01, 2.4750e+00,-3.3790e+00,-4.9400e-01,-3.3900e-01, 2.9130e+00,
     -1.0340e+00,-4.7160e+00, 1.5300e-01,-1.1180e+00,-4.3770e+00, 7.4300e-01,
     -2.5390e+00,-9.0500e-01,-7.7800e-01,-2.9590e+00, 9.8500e-01,-3.0580e+00,
     -1.5610e+00,-5.3000e-02,-1.9630e+00,-4.2200e-01,-5.0600e-01, 3.3500e-01,
     -1.6000e+00, 3.6600e-01,-7.8100e-01,-6.7000e-01, 1.1970e+00,-2.8900e-01,
     -1.0010e+00
    },
    {-7.4100e-01, 1.4340e+00,-2.5760e+00,-5.0300e-01,-2.5500e-01, 2.4220e+00,
     -3.3200e-01,-2.1620e+00,-7.9200e-01,-3.7000e-02,-3.9670e+00, 4.9800e-01,
     -2.7860e+00,-4.8000e-01, 6.2000e-02,-2.6940e+00,-5.0100e-01,-3.1100e-01,
      3.7700e-01,-2.3930e+00,-1.7620e+00,-1.5300e-01,-6.7200e-01,-1.1650e+00,
      3.4200e-01,-2.1100e-01,-1.2620e+00,-5.3500e-01, 9.0100e-01,-9.6800e-01,
     -4.4200e-01
    },
    {-5.1300e-01, 1.2020e+00,-1.4440e+00,-6.3500e-01,-1.1300e-01, 4.7800e-01,
     -8.7600e-01,-4.1920e+00, 6.3800e-01,-1.2400e-01,-5.2910e+00, 9.9700e-01,
     -3.0710e+00,-4.1400e-01,-6.5000e-01,-1.8190e+00, 2.4990e+00,-1.7020e+00,
      7.4100e-01,-5.6200e-01,-2.9340e+00,-1.3800e+00,-4.2300e-01,-8.9400e-01,
     -2.1240e+00, 5.9600e-01,-9.9800e-01,-3.2900e-01, 1.7350e+00,-5.2700e-01,
     -6.5400e-01
    },
    {-2.4800e-01, 5.9000e-01,-9.3400e-01,-6.0200e-01,-2.6300e-01, 2.0670e+00,
     -6.1200e-01,-2.4490e+00, 1.6100e-01,-3.1300e-01,-4.2100e+00, 7.8500e-01,
     -2.3250e+00,-5.2600e-01,-2.2000e-01,-1.3590e+00, 2.1020e+00,-2.5800e+00,
      1.2420e+00,-9.8000e-01,-2.0300e+00,-1.0480e+00, 4.9200e-01,-5.2300e-01,
     -3.6400e-01, 9.5700e-01,-1.3290e+00,-3.9500e-01, 2.1080e+00,-8.1200e-01,
     -9.4100e-01
    },
    {-3.5400e-01, 7.4000e-01,-1.0600e+00,-2.0400e-01,-1.4600e-01, 2.4440e+00,
     -1.0810e+00,-2.7940e+00,-1.3700e-01, 4.3600e-01,-3.3640e+00, 6.5800e-01,
     -1.9820e+00,-1.6000e-01,-5.2300e-01,-8.1000e-01, 1.5020e+00,-6.2800e-01,
      4.1800e-01,-3.0040e+00,-1.2180e+00,-1.2040e+00, 5.4000e-02,-4.7500e-01,
      4.8000e-01, 4.9300e-01,-1.5810e+00,-3.9000e-01, 1.8590e+00,-7.5800e-01,
     -1.2290e+00
    },
    {-4.2000e-01, 5.7300e-01,-8.6300e-01,-1.2000e-02,-1.4900e-01, 1.5990e+00,
     -6.7600e-01,-3.3700e-01, 1.8600e-01,-2.6400e-01,-3.6010e+00, 2.9600e-01,
     -2.3630e+00,-9.4000e-02,-2.1300e-01,-5.4700e-01, 9.8300e-01,-5.0000e-02,
      8.0400e-01,-2.1940e+00,-2.8100e-01,-9.4000e-01,-3.8100e-01,-4.5200e-01,
      3.3700e-01, 3.4700e-01,-2.6490e+00, 4.5900e-01, 2.1760e+00,-5.9500e-01,
     -1.4280e+00
    },
    {-4.5800e-01, 6.5400e-01,-8.8800e-01,-6.8000e-02,-4.2000e-01, 7.5300e-01,
     -5.0700e-01,-1.7200e-01, 2.1100e-01, 2.0800e-01,-2.0260e+00,-1.0000e-03,
     -1.5690e+00,-1.4700e-01, 5.0000e-03, 1.5300e-01, 1.7530e+00, 8.4300e-01,
      1.1070e+00,-2.1930e+00,-1.1990e+00,-1.1770e+00,-6.7500e-01,-9.0900e-01,
      9.7800e-01, 9.7600e-01,-2.5290e+00,-1.5150e+00, 2.0820e+00,-4.5700e-01,
     -1.5850e+00
    },
    {-6.5800e-01, 1.0970e+00,-1.1180e+00,-8.0000e-03,-6.0300e-01, 7.8900e-01,
     -1.3340e+00,-2.4790e+00,-4.0500e-01, 1.3600e-01,-3.5080e+00, 3.1300e-01,
     -2.2530e+00,-3.3200e-01,-1.2600e-01, 3.7200e-01, 3.5000e-01, 7.2200e-01,
     -8.2000e-02,-7.9600e-01,-1.6860e+00,-1.0660e+00,-6.8800e-01,-6.9200e-01,
      1.0830e+00, 2.0700e-01,-1.7560e+00,-7.8500e-01, 1.6840e+00,-8.6200e-01,
     -1.4210e+00
    },
    {-2.8000e-01, 1.1200e+00,-1.0930e+00,-4.9000e-02,-2.1400e-01, 2.1320e+00,
     -9.8100e-01,-2.1690e+00, 1.4000e-02, 1.2280e+00,-4.9390e+00, 6.2300e-01,
     -2.8570e+00,-1.1070e+00,-5.2900e-01,-9.5100e-01,-4.6000e-01,-7.7000e-02,
     -3.9000e-02,-9.1900e-01,-1.2990e+00,-3.2100e-01,-4.3400e-01,-8.8100e-01,
      7.4700e-01,-1.6700e-01,-1.5190e+00,-5.8700e-01, 1.0260e+00,-1.3160e+00,
     -6.5400e-01
    },
    {-8.5300e-01, 1.6500e+00,-1.9410e+00,-4.3500e-01,-1.6000e-02, 2.3940e+00,
     -9.9700e-01,-2.7050e+00,-2.9200e-01, 8.7800e-01,-3.7710e+00, 1.1980e+00,
     -1.7260e+00,-1.3750e+00,-6.5900e-01,-2.4800e-01, 3.5100e-01, 3.6200e-01,
      2.4000e-01,-1.3790e+00,-1.9730e+00,-5.7200e-01,-6.9600e-01,-1.0730e+00,
      8.5400e-01,-2.3600e-01,-1.3350e+00,-8.3000e-01, 9.0100e-01,-1.3060e+00,
     -1.0890e+00
    },
    {-1.3960e+00, 1.7120e+00,-2.1670e+00,-1.0680e+00, 6.7200e-01, 2.3690e+00,
     -7.9600e-01,-2.4890e+00, 6.2000e-02, 1.5910e+00,-4.4470e+00, 9.8400e-01,
     -2.2030e+00,-1.2930e+00,-9.4400e-01,-4.4200e-01, 1.9500e-01,-1.0900e-01,
     -7.8000e-02,-8.0500e-01,-2.5040e+00,-6.4200e-01,-8.1200e-01,-9.2000e-01,
      8.8400e-01,-2.8100e-01,-8.7400e-01,-8.2000e-01, 1.3110e+00,-1.5180e+00,
     -1.2790e+00
    },
    {-5.7600e-01, 1.3150e+00,-1.5430e+00,-4.4800e-01,-2.9600e-01, 3.5230e+00,
     -1.9180e+00,-3.0110e+00,-1.7970e+00, 2.0040e+00,-3.9920e+00, 1.6600e-01,
     -2.6390e+00,-1.4000e-02,-6.9600e-01,-1.3570e+00, 3.8000e-02,-5.7700e-01,
      3.2200e-01,-2.0970e+00,-2.0570e+00,-2.1120e+00,-1.1460e+00,-1.1940e+00,
      1.0880e+00, 3.9700e-01,-1.4730e+00,-2.3100e-01, 1.9060e+00,-8.7900e-01,
     -1.0290e+00
    },
    {-6.0900e-01, 1.3580e+00,-1.5120e+00, 1.9700e-01,-7.8600e-01, 2.2450e+00,
     -1.0790e+00,-2.9650e+00,-3.4100e-01, 7.5400e-01,-4.5230e+00, 4.3300e-01,
     -2.6800e+00,-7.7600e-01,-1.6400e-01,-2.1550e+00,-2.0180e+00,-1.9500e-01,
     -7.0600e-01,-2.3000e-01,-3.2850e+00,-1.1940e+00,-6.9200e-01,-2.0270e+00,
      1.3210e+00, 4.0400e-01,-1.4950e+00,-8.7200e-01, 1.6440e+00,-6.8900e-01,
     -8.1800e-01
    },
    {-4.8800e-01, 9.5100e-01,-1.0350e+00,-6.8000e-02,-5.2800e-01, 1.4920e+00,
     -1.1320e+00,-3.1770e+00,-8.0000e-01,-2.7000e-02,-2.6990e+00, 5.0000e-01,
     -1.5340e+00,-3.9400e-01,-1.9900e-01,-9.3300e-01,-1.6710e+00,-5.7900e-01,
     -2.3600e-01,-6.5500e-01,-2.5670e+00,-9.8100e-01,-7.2700e-01,-1.0530e+00,
      1.3410e+00,-5.9600e-01,-1.8170e+00,-2.0800e-01, 1.6640e+00,-5.9500e-01,
     -1.4560e+00
    },
    {-8.4700e-01, 9.4200e-01,-6.8300e-01,-4.9400e-01,-1.7000e-02,-7.8400e-01,
      3.1800e-01,-1.9280e+00,-1.5600e-01, 5.9000e-02,-2.5350e+00, 8.7400e-01,
     -1.2640e+00,-9.6500e-01,-7.3100e-01,-8.3700e-01, 9.1000e-02,-6.3900e-01,
      5.0000e-03,-6.6300e-01,-1.0320e+00,-4.9100e-01,-3.2200e-01,-5.6000e-01,
      3.0000e-02,-4.1700e-01,-1.1830e+00,-6.7700e-01, 2.1360e+00,-1.6060e+00,
     -7.6100e-01
    },
    {-8.3400e-01, 9.0300e-01,-9.9600e-01,-3.5600e-01, 3.4000e-02, 9.8100e-01,
     -3.1800e-01,-8.6700e-01, 2.1600e-01, 1.4000e-02,-3.2160e+00, 3.3900e-01,
     -1.9700e+00,-7.0000e-02,-4.1700e-01,-1.1610e+00, 4.0900e-01,-6.9000e-01,
      3.3000e-02,-7.5200e-01,-1.3930e+00,-6.9300e-01,-8.7000e-02,-7.9900e-01,
     -2.8000e-02, 6.2700e-01,-1.5130e+00,-3.2800e-01, 3.7360e+00,-2.1640e+00,
     -1.1680e+00
    },
    {-4.1100e-01, 1.0770e+00,-1.2330e+00,-1.0700e-01,-8.9000e-02, 2.2200e-01,
      2.9100e-01,-7.5100e-01,-3.2200e-01,-1.5700e-01,-3.3990e+00, 2.9200e-01,
     -2.2970e+00,-1.1900e-01,-4.7200e-01,-1.1220e+00, 1.5800e-01,-6.6600e-01,
     -1.0600e-01,-7.7100e-01,-1.7110e+00,-1.9620e+00, 4.7000e-02,-1.0980e+00,
      2.8600e-01, 8.7000e-02,-1.8680e+00,-1.0600e-01, 2.5260e+00,-1.7780e+00,
     -9.1200e-01
    },
    {-1.4710e+00, 1.5560e+00,-1.4000e+00,-1.0240e+00, 5.7000e-02,-3.3300e-01,
      6.4200e-01,-5.9200e-01, 1.6600e-01, 3.7000e-02,-4.0590e+00, 7.5100e-01,
     -2.1800e+00,-7.3000e-01,-6.3700e-01,-1.4400e+00, 2.4000e-01,-5.2500e-01,
      4.1000e-02,-8.3100e-01,-4.7500e-01,-8.3300e-01,-6.9000e-02,-4.1000e-01,
     -3.2000e-02,-4.7200e-01,-1.1620e+00,-1.7290e+00, 3.7500e+00,-3.1440e+00,
     -1.5850e+00
    },
    {-1.9060e+00, 1.4620e+00,-1.5920e+00,-1.3170e+00, 5.7900e-01,-1.6500e-01,
      6.6400e-01,-1.4930e+00, 3.7000e-01, 1.0400e-01,-3.1360e+00, 4.6700e-01,
     -1.8460e+00,-4.9000e-01,-4.8300e-01,-5.3800e-01, 3.2000e-01,-7.9900e-01,
      8.5000e-02,-7.7000e-01,-8.0300e-01,-2.8800e-01,-2.0000e-01,-2.8900e-01,
     -4.3400e-01, 3.8700e-01,-1.1470e+00,-1.1150e+00, 2.7810e+00,-6.2700e-01,
     -1.9950e+00
    },
    {-1.2330e+00, 1.1600e+00,-1.6280e+00,-1.1800e+00,-9.3000e-02,-1.0140e+00,
      2.0970e+00,-2.5850e+00, 6.9400e-01,-1.6240e+00,-2.9730e+00, 1.1600e-01,
     -2.1560e+00,-4.5800e-01,-6.2000e-02,-7.6400e-01, 1.0000e-03,-5.9200e-01,
     -1.0000e-02,-8.4600e-01,-7.3400e-01,-1.1850e+00,-5.3400e-01,-6.7600e-01,
      9.2100e-01,-3.8000e-02,-9.2000e-01,-7.5100e-01, 1.7100e+00,-9.7100e-01,
     -9.3900e-01
    },
    {-7.9700e-01, 6.6800e-01,-7.3300e-01, 7.7000e-02, 8.1000e-02, 8.6900e-01,
      3.4500e-01,-4.5900e-01,-4.9900e-01,-6.0100e-01,-3.2380e+00, 3.4900e-01,
     -2.0650e+00,-3.3700e-01,-2.4200e-01,-1.4800e+00, 3.1900e-01,-7.7600e-01,
      1.9600e-01,-1.3390e+00,-1.7250e+00,-1.0810e+00,-8.9100e-01,-6.8800e-01,
      7.7000e-01,-2.9800e-01,-1.5400e+00,-8.9200e-01, 2.3650e+00,-1.1440e+00,
     -1.5820e+00
    },
    {-3.2700e-01, 9.4600e-01,-1.1110e+00,-3.0000e-03,-5.2500e-01, 3.6420e+00,
     -1.5200e-01,-6.7300e-01, 7.9100e-01,-2.5400e-01,-3.4410e+00,-1.5200e-01,
     -2.5140e+00,-9.1000e-02, 4.6000e-01,-1.3760e+00,-8.3200e-01,-1.8900e-01,
     -5.8000e-02,-8.5400e-01,-2.7580e+00,-1.5420e+00,-7.5400e-01,-8.8800e-01,
      1.8200e+00,-6.2800e-01,-1.7770e+00,-1.2700e+00, 1.0110e+00,-1.1930e+00,
     -1.9660e+00
    },
    {-7.0600e-01, 7.4600e-01,-7.7700e-01,-2.9200e-01,-2.1400e-01, 6.3600e-01,
      1.5070e+00, 8.0000e-02, 2.3300e-01, 1.6000e+00,-3.9940e+00, 4.4300e-01,
     -2.4170e+00,-5.4500e-01,-3.5700e-01,-1.3510e+00,-1.3800e-01,-4.8400e-01,
      1.8500e-01,-6.9800e-01,-2.1600e+00,-1.3390e+00,-1.1980e+00,-6.2100e-01,
      1.1310e+00,-5.2400e-01,-2.4120e+00, 3.7200e-01, 2.9650e+00,-1.6000e+00,
     -8.9900e-01
    },
    {-3.2800e-01, 5.6900e-01,-9.6100e-01,-3.2000e-01,-1.9700e-01, 6.4200e-01,
      1.0760e+00, 1.6040e+00, 6.2800e-01, 7.6100e-01,-4.3770e+00, 6.8200e-01,
     -2.7460e+00,-3.8600e-01,-6.0100e-01,-2.1830e+00, 1.5000e-01,-9.4900e-01,
      4.9700e-01,-1.1740e+00,-2.0600e+00,-1.7750e+00,-1.7400e-01,-8.5000e-01,
      4.5200e-01,-6.2400e-01,-1.8330e+00, 1.8900e-01, 1.8120e+00,-1.3150e+00,
     -8.8000e-01
    },
    {-1.7900e-01, 6.3900e-01,-6.6900e-01,-1.4600e-01,-2.0000e-02, 2.3010e+00,
      5.0000e-02, 3.1200e-01, 4.6000e-02, 9.5900e-01,-4.8380e+00, 6.1200e-01,
     -3.0770e+00,-2.9700e-01,-8.4300e-01,-1.3320e+00, 2.6000e-01,-8.2500e-01,
     -8.2000e-02,-9.0500e-01,-9.9200e-01,-1.4190e+00, 3.5000e-02,-8.0000e-01,
      2.4100e-01, 2.0700e-01,-2.1090e+00,-2.8000e-02, 2.6700e+00,-1.9690e+00,
     -1.0150e+00
    },
    {-1.1320e+00, 1.1630e+00,-1.3070e+00,-4.5000e-01,-8.2000e-02, 2.0640e+00,
      1.7500e-01, 3.5200e-01, 1.4050e+00, 9.5600e-01,-2.6610e+00, 2.6000e-02,
     -1.7000e+00,-4.8600e-01,-7.7000e-02,-5.6700e-01,-1.4000e-01,-4.3000e-01,
     -1.4800e-01,-6.4200e-01,-1.5360e+00,-7.7100e-01,-7.2000e-01,-8.0500e-01,
      9.5200e-01,-4.2000e-02,-1.5150e+00,-4.5500e-01, 2.1480e+00,-2.3340e+00,
     -8.9800e-01
    },
    {-5.5100e-01, 1.6140e+00,-1.7830e+00,-4.1900e-01,-2.0900e-01, 1.7100e-01,
      7.6900e-01,-5.9600e-01,-5.2600e-01,-1.3400e-01,-2.3790e+00, 2.5800e-01,
     -1.0460e+00,-1.2300e-01,-2.5200e-01,-2.1910e+00,-3.3000e-02,-5.6500e-01,
      3.9400e-01,-1.3400e+00,-1.1470e+00,-1.3210e+00,-2.6200e-01,-9.3200e-01,
      2.0100e-01, 4.6000e-02,-1.5850e+00, 5.7000e-02, 2.3760e+00,-1.5010e+00,
     -7.2400e-01
    },
    {-7.1600e-01, 7.2800e-01,-9.0600e-01,-4.4000e-01,-9.3000e-02, 1.3300e-01,
      7.0100e-01,-6.4200e-01, 3.2800e-01, 4.0600e-01,-2.6890e+00, 3.2700e-01,
     -1.5680e+00,-2.3800e-01,-4.8700e-01,-1.7420e+00, 2.5800e-01,-1.0150e+00,
      2.3700e-01,-1.4710e+00,-1.3050e+00,-1.9250e+00,-3.3600e-01,-7.5400e-01,
      5.5500e-01, 8.6100e-01,-1.8390e+00,-6.2800e-01, 3.6590e+00,-1.7800e+00,
     -8.0800e-01
    },
    {-2.3000e-01, 7.7600e-01,-7.3000e-01, 1.5200e-01,-1.8700e-01, 5.9800e-01,
      8.9400e-01,-3.4000e-02, 5.5000e-01, 3.2000e-02,-3.5410e+00, 4.7300e-01,
     -2.0260e+00,-3.9300e-01,-5.7600e-01,-9.9500e-01, 1.6100e-01,-4.1900e-01,
      6.3000e-02,-8.7600e-01,-6.8000e-02,-2.7600e-01,-3.8100e-01,-5.6400e-01,
      6.6000e-01, 4.9400e-01,-2.0690e+00, 1.0470e+00, 2.6700e+00,-1.9290e+00,
     -6.4600e-01
    },
    {-2.6700e-01, 9.2200e-01,-5.9500e-01,-1.2400e-01,-1.2600e-01, 7.1900e-01,
      6.0000e-01, 4.1100e-01,-2.7000e-02, 2.6100e-01,-2.3800e+00, 1.6500e-01,
     -1.4520e+00, 1.1000e-02,-1.0300e-01,-9.3400e-01, 1.1000e-02,-6.0500e-01,
      3.0100e-01,-5.3000e-01,-1.0350e+00,-1.0940e+00, 9.7000e-02,-6.1800e-01,
      3.7700e-01,-3.5700e-01,-2.2100e+00, 1.4830e+00, 2.0780e+00,-1.0310e+00,
     -8.6000e-01
    },
    {-4.2800e-01, 3.8000e-01,-7.5700e-01,-8.3000e-02,-1.4800e-01, 1.4260e+00,
      1.1910e+00, 5.7700e-01, 6.5200e-01,-1.2890e+00,-2.7330e+00, 2.8500e-01,
     -1.7390e+00,-2.0200e-01,-4.1000e-02,-1.3460e+00,-4.4900e-01,-1.0000e-03,
      2.0900e-01,-8.2700e-01, 1.4200e+00, 6.7300e-01, 1.7000e-02,-3.0600e-01,
     -3.3200e-01,-2.0700e-01,-2.5180e+00, 9.2800e-01, 1.6430e+00,-1.4370e+00,
     -8.9700e-01
    },
    {-2.8400e-01, 4.2900e-01,-4.5800e-01,-8.0000e-03,-2.3600e-01, 2.3200e+00,
      1.0270e+00, 7.2600e-01, 4.3300e-01,-1.5830e+00,-3.6040e+00, 6.6500e-01,
     -1.7920e+00,-6.3600e-01,-4.3900e-01,-1.2530e+00,-1.1020e+00,-2.7200e-01,
      9.4000e-02,-1.4300e-01, 4.9000e-01, 3.9100e-01, 1.3000e-01,-8.0300e-01,
     -3.9100e-01, 1.1200e-01,-2.7570e+00, 1.1940e+00, 2.5570e+00,-1.2950e+00,
     -6.0700e-01
    },
    {-3.9700e-01, 5.1800e-01,-5.6600e-01, 8.0000e-03,-4.5400e-01, 1.6810e+00,
      5.6200e-01, 6.2000e-01, 8.7300e-01,-8.9900e-01,-2.9510e+00, 3.4500e-01,
     -1.6330e+00,-5.6600e-01,-9.2000e-02,-1.6430e+00,-8.1600e-01,-1.0800e-01,
     -2.1000e-02,-5.8900e-01, 1.6160e+00, 3.4300e-01,-4.5200e-01, 3.9700e-01,
     -1.0900e+00,-8.7000e-01,-2.8690e+00, 2.4000e+00, 3.2000e+00,-1.1930e+00,
     -2.0000e-02
    },
    {-4.5500e-01, 7.0300e-01,-6.8800e-01, 2.4000e-02,-2.7200e-01, 1.3200e+00,
      8.2100e-01, 2.2300e-01, 3.7200e-01,-8.0900e-01,-1.8880e+00, 1.7400e-01,
     -1.2480e+00,-2.4000e-02,-1.0000e-01,-3.3300e-01,-3.2900e-01,-7.9000e-02,
     -1.0800e-01,-4.1900e-01, 1.1670e+00, 2.7500e-01,-4.2500e-01, 1.0860e+00,
     -4.7200e-01,-5.7100e-01,-2.8720e+00, 1.7110e+00, 2.3520e+00,-1.8100e+00,
     -1.8200e-01
    },
    {-1.9800e-01, 5.5900e-01,-4.3700e-01, 3.2000e-02,-2.2100e-01, 1.3610e+00,
      9.5800e-01, 3.7700e-01, 6.6800e-01,-1.0680e+00,-2.8750e+00, 4.6700e-01,
     -1.5180e+00,-4.2100e-01,-1.7700e-01,-1.0670e+00,-1.9000e-02,-2.0800e-01,
     -1.6500e-01,-4.3100e-01, 1.0630e+00, 1.0710e+00, 1.1800e-01, 2.5300e-01,
      6.5300e-01,-1.9900e-01,-3.1770e+00, 1.3340e+00, 2.8550e+00,-9.7500e-01,
      1.0660e+00
    },
    {-5.3100e-01, 4.4300e-01,-6.7100e-01,-2.9800e-01,-1.1600e-01, 1.6760e+00,
     -1.7300e-01, 4.1200e-01, 2.2100e-01,-8.1000e-02,-3.0660e+00, 5.2400e-01,
     -1.4650e+00,-4.5800e-01,-2.0500e-01,-1.4140e+00, 5.2000e-02, 1.6400e-01,
     -1.5200e-01,-3.3600e-01, 1.4420e+00, 4.4100e-01, 4.1400e-01,-2.9000e-01,
      5.5300e-01,-1.6640e+00,-2.7090e+00, 2.2510e+00, 4.2430e+00,-1.3710e+00,
      1.7830e+00
    },
    {-3.6300e-01, 6.2800e-01,-1.0860e+00,-2.6300e-01,-7.3000e-02, 1.4080e+00,
     -6.8300e-01, 1.6000e-01,-3.0900e-01,-8.2000e-02,-2.1090e+00, 1.8400e-01,
     -1.5840e+00,-4.9000e-02,-1.0300e-01,-8.8400e-01,-4.5200e-01,-2.2000e-02,
     -4.2200e-01, 3.3200e-01, 5.9100e-01, 3.8800e-01, 3.7900e-01,-2.4400e-01,
      6.8500e-01,-1.5730e+00,-2.4830e+00, 1.1900e+00, 2.0800e+00,-1.7910e+00,
      1.5590e+00
    },
    {-2.1000e-01, 6.5300e-01,-9.9000e-01, 8.0000e-03,-3.5900e-01, 1.5310e+00,
     -7.0900e-01,-1.5100e-01,-5.6000e-01,-3.7000e-01,-1.8250e+00, 2.7900e-01,
     -1.3590e+00,-1.2500e-01,-1.3300e-01,-1.0610e+00,-2.9100e-01, 1.6800e-01,
     -3.0700e-01, 1.6900e-01, 7.5900e-01, 7.2800e-01, 1.8200e-01, 4.0100e-01,
     -1.9500e-01,-9.7800e-01,-2.6460e+00, 1.9900e-01, 1.5120e+00,-1.5320e+00,
      9.4500e-01
    },
    {-2.6800e-01, 4.0700e-01,-8.9300e-01,-1.0800e-01,-1.8400e-01, 2.2360e+00,
     -5.4600e-01, 1.6600e-01,-9.7000e-02,-3.7700e-01,-1.9340e+00, 2.4500e-01,
     -8.6200e-01,-2.4300e-01,-1.7100e-01,-8.1100e-01,-8.9400e-01,-2.4200e-01,
     -3.7800e-01, 2.9200e-01, 1.4290e+00,-3.2000e-01,-2.0000e-02,-1.5400e-01,
      5.0300e-01,-8.8200e-01,-2.6860e+00, 8.5500e-01, 4.0310e+00,-1.9410e+00,
      2.6380e+00
    },
    {-1.9900e-01, 4.0200e-01,-4.5200e-01,-7.1000e-02,-6.0000e-03, 2.2320e+00,
      6.2400e-01, 3.9400e-01, 4.0000e-02,-6.3200e-01,-2.6090e+00, 4.6600e-01,
     -1.2200e+00,-1.1900e-01,-4.9000e-01,-3.9400e-01,-8.0100e-01, 1.2600e-01,
     -3.0600e-01, 2.2500e-01, 1.6490e+00,-2.5300e-01, 3.8700e-01,-2.1700e-01,
      8.0800e-01,-2.0780e+00,-3.4440e+00, 5.9800e-01, 3.1540e+00,-1.8730e+00,
      3.9200e+00
    },
    {-5.0800e-01, 5.3700e-01,-9.4900e-01,-4.9000e-02,-2.0900e-01, 1.7710e+00,
      3.7400e-01, 4.4800e-01, 2.8000e-01, 3.5300e-01,-2.3160e+00, 3.1800e-01,
     -1.2970e+00,-6.9000e-02,-4.3900e-01,-9.2800e-01,-7.1200e-01,-1.4400e-01,
     -2.3600e-01, 4.2000e-01, 1.4970e+00,-1.4600e-01, 2.8000e-01,-1.2500e-01,
      8.6000e-01,-1.6910e+00,-2.5510e+00, 1.2500e+00, 3.5350e+00,-1.7310e+00,
      2.3230e+00
    },
    {-4.2300e-01, 8.3600e-01,-9.6000e-01,-7.9000e-02,-4.3700e-01, 1.6790e+00,
      6.4300e-01, 5.4700e-01, 7.0800e-01,-7.1900e-01,-1.6160e+00,-1.2000e-02,
     -9.6800e-01,-2.6100e-01, 6.9000e-02, 1.0100e-01,-4.1900e-01, 1.0400e-01,
      6.6000e-02, 1.1000e-02, 1.6690e+00, 3.8700e-01, 4.6800e-01,-2.1400e-01,
      7.8900e-01,-1.8490e+00,-2.4190e+00, 3.0330e+00, 2.9270e+00,-8.4200e-01,
      1.3820e+00
    },
    {-4.9100e-01, 4.5400e-01,-5.9600e-01,-1.2000e-01,-3.0000e-03, 2.4790e+00,
      1.2980e+00, 4.2900e-01, 6.9600e-01,-6.3500e-01,-2.5020e+00, 2.4100e-01,
     -1.3590e+00,-1.3300e-01,-2.1300e-01,-1.3900e-01,-7.3000e-02,-3.3900e-01,
      8.0000e-02,-3.6900e-01, 1.9760e+00,-9.2000e-02, 5.4400e-01, 3.1900e-01,
      9.2500e-01,-4.8800e-01,-2.5280e+00, 2.2280e+00, 4.9210e+00,-1.3170e+00,
      1.9050e+00
    },
    {-8.5700e-01, 4.8300e-01,-1.0530e+00,-2.6500e-01,-9.2000e-02, 1.8070e+00,
      6.6300e-01, 3.3900e-01, 4.0500e-01,-9.2600e-01,-2.0770e+00, 2.8200e-01,
     -1.1160e+00,-2.9500e-01,-2.5200e-01, 3.0100e-01,-4.0000e-03,-5.7000e-01,
     -1.6100e-01,-2.7400e-01, 6.4300e-01, 5.2000e-02, 3.9200e-01,-7.1000e-02,
      5.8300e-01, 1.2000e-01,-1.9000e+00, 1.5200e+00, 3.3230e+00,-5.2300e-01,
      1.3340e+00
    },
    {-3.4100e-01, 4.0900e-01,-1.0080e+00,-1.1400e-01,-2.7000e-02, 2.4990e+00,
      5.6000e-01,-2.1000e-02, 4.1100e-01,-3.3000e-01,-1.7660e+00, 1.6100e-01,
     -9.8700e-01,-1.3100e-01,-2.1600e-01,-9.4500e-01, 1.4600e-01, 5.0500e-01,
     -3.7500e-01, 6.3200e-01, 9.0900e-01, 2.3700e-01, 4.7400e-01, 7.0000e-02,
      8.2600e-01, 7.4500e-01,-2.2510e+00, 3.5800e-01, 3.1820e+00,-3.7800e-01,
      1.5650e+00
    },
    {-6.4500e-01, 8.8400e-01,-1.3460e+00,-3.6900e-01,-2.7200e-01, 3.3630e+00,
      2.7800e-01, 2.6000e-01, 6.5600e-01, 2.7400e-01,-2.4440e+00, 1.2700e-01,
     -1.4480e+00,-3.5300e-01,-2.9100e-01,-1.7200e-01,-1.3500e-01, 1.6000e-02,
     -9.5500e-01, 1.0300e-01, 1.7900e+00, 5.6000e-01, 7.8400e-01, 3.6000e-02,
      1.2370e+00,-5.9300e-01,-1.8840e+00, 1.3620e+00, 2.6240e+00,-2.1800e-01,
      1.3400e+00
    },
    {-3.2400e-01, 9.6100e-01,-1.0070e+00,-9.4000e-02,-3.5900e-01, 5.1110e+00,
     -1.9000e-01,-3.1000e-02,-1.6000e-01, 1.0130e+00,-3.1180e+00, 2.3600e-01,
     -1.7410e+00,-2.1900e-01,-2.1000e-01,-1.3510e+00,-8.5300e-01,-5.3600e-01,
     -4.1600e-01, 4.2100e-01, 1.4520e+00,-1.4700e-01, 7.9400e-01,-1.4000e-01,
      1.1770e+00,-1.4680e+00,-1.3080e+00, 1.1690e+00, 2.7250e+00,-2.1180e+00,
      1.3030e+00
    },
    {-1.6700e-01, 6.8300e-01,-9.4100e-01,-1.3000e-01,-1.6300e-01, 1.3080e+00,
      2.0000e-01, 1.3660e+00,-6.9500e-01,-2.1600e-01,-3.5120e+00, 2.8800e-01,
     -2.2210e+00,-6.4600e-01,-3.5100e-01,-1.4420e+00,-6.3700e-01,-3.4200e-01,
     -5.5800e-01, 6.3100e-01, 1.1470e+00, 3.2000e-01, 5.3300e-01,-5.0000e-03,
      8.8000e-01,-8.8800e-01,-1.8880e+00,-2.9000e-01, 1.4930e+00,-1.6850e+00,
      1.1370e+00
    },
    {-4.3300e-01, 7.8200e-01,-7.6900e-01,-1.4500e-01,-2.9300e-01, 1.6370e+00,
     -2.6200e-01, 3.5400e-01, 3.7900e-01, 1.0920e+00,-3.0190e+00, 1.2000e-01,
     -1.8390e+00,-2.7800e-01,-1.3600e-01,-1.1210e+00,-7.6500e-01,-2.7100e-01,
     -3.2900e-01, 4.8700e-01, 1.2340e+00, 3.9000e-02, 7.1000e-02, 2.1000e-02,
      7.3200e-01,-9.3200e-01,-2.6100e+00,-1.3820e+00, 2.7490e+00,-2.1050e+00,
      2.9250e+00
    },
    {-5.6200e-01, 9.6700e-01,-1.1300e+00, 5.0000e-03,-2.2000e-01, 1.6280e+00,
     -1.0100e+00,-1.0410e+00, 1.7600e-01, 6.0000e-01,-2.0550e+00, 1.7000e-01,
     -1.3930e+00,-2.2500e-01,-2.3500e-01,-8.1200e-01,-3.9700e-01,-2.7000e-01,
     -3.2800e-01, 1.0300e-01, 1.2930e+00,-1.5300e-01, 5.7600e-01,-2.1800e-01,
      9.3300e-01,-6.7400e-01,-1.8910e+00,-5.8900e-01, 2.7550e+00,-2.3920e+00,
      1.6920e+00
    },
    {-3.0600e-01, 8.1500e-01,-8.9300e-01,-1.5200e-01,-2.2500e-01, 9.6800e-01,
     -8.2200e-01, 3.9100e-01,-1.9500e-01, 9.7200e-01,-2.3830e+00,-5.7000e-02,
     -1.7010e+00,-9.4000e-02,-2.2600e-01,-1.4800e+00,-8.0600e-01,-2.0600e-01,
     -4.3300e-01, 3.3400e-01, 1.2970e+00,-5.4000e-02, 4.1100e-01,-1.9600e-01,
      9.4400e-01,-1.4330e+00,-2.1310e+00,-6.4600e-01, 1.8320e+00,-1.9090e+00,
      2.1010e+00
    },
    {-3.2000e-01, 9.3500e-01,-9.6400e-01, 2.2000e-02,-3.1700e-01, 8.6200e-01,
      4.9400e-01, 7.4900e-01,-4.8500e-01, 8.6000e-02,-1.6670e+00, 1.0000e-01,
     -1.0280e+00,-2.5100e-01,-3.5000e-02,-1.4150e+00,-8.2800e-01,-4.3200e-01,
     -6.8700e-01, 6.7200e-01, 9.7200e-01, 4.3400e-01, 2.5900e-01, 8.8000e-02,
      8.1300e-01,-1.0460e+00,-1.9780e+00,-1.3400e-01, 1.2960e+00,-1.6550e+00,
      1.1650e+00
    },
    {-2.4600e-01, 4.8900e-01,-6.1800e-01, 4.0000e-02,-1.1800e-01, 1.3100e-01,
     -7.4100e-01, 1.7980e+00, 1.8600e-01, 1.1640e+00,-1.4770e+00,-1.3000e-02,
     -1.2500e+00,-6.7000e-02, 1.1100e-01,-7.3300e-01,-8.2400e-01,-1.1500e-01,
     -4.5300e-01, 6.1500e-01, 1.2840e+00, 3.5600e-01,-1.1000e-02,-6.0000e-03,
      9.1000e-01,-4.9800e-01,-2.5400e+00, 8.5800e-01, 2.0100e+00,-1.4860e+00,
      9.3900e-01
    },
    {-2.5400e-01, 7.0100e-01,-9.5900e-01, 1.2000e-02,-2.7200e-01,-5.4000e-02,
     -8.2600e-01, 4.8900e-01, 8.0700e-01, 1.4700e-01,-2.4460e+00, 3.7800e-01,
     -1.3350e+00,-5.8000e-01,-6.5000e-02,-1.3740e+00,-6.0400e-01,-4.3000e-01,
     -6.0600e-01, 6.2900e-01, 1.8110e+00, 1.1410e+00,-1.8000e-02, 9.7000e-02,
      1.4760e+00,-4.1700e-01,-1.9190e+00, 1.9500e-01, 1.7850e+00,-1.2950e+00,
      1.0120e+00
    },
    {-7.2200e-01, 1.0160e+00,-1.4780e+00, 8.6000e-02,-4.9200e-01,-6.1000e-02,
     -8.4300e-01, 1.0040e+00, 6.0800e-01, 1.3020e+00,-2.4890e+00, 1.2500e-01,
     -1.5640e+00,-2.7300e-01,-4.5000e-02,-1.5550e+00,-1.3240e+00,-6.5500e-01,
     -6.3600e-01, 1.0940e+00, 1.9380e+00, 1.0850e+00, 5.5500e-01,-8.4000e-02,
      9.0700e-01,-1.5100e-01,-1.4500e+00, 7.3900e-01, 2.0050e+00,-1.1810e+00,
      7.5700e-01
    },
    {-2.3800e-01, 8.9500e-01,-8.6500e-01, 7.4000e-02,-3.9400e-01, 8.3200e-01,
     -6.2600e-01, 1.1190e+00, 2.5900e-01, 4.3200e-01,-3.8630e+00, 3.9700e-01,
     -2.2270e+00,-2.4800e-01,-7.7000e-02,-5.4300e-01,-7.0300e-01,-1.4000e-02,
     -5.1700e-01, 4.3600e-01, 1.3630e+00, 1.3900e-01, 2.8600e-01,-3.9800e-01,
      9.7900e-01,-2.0000e-03,-2.1970e+00, 2.2200e-01, 1.9740e+00,-1.5890e+00,
      9.0200e-01
    },
    {-3.1100e-01, 1.3090e+00,-1.2360e+00,-1.5400e-01,-4.2600e-01, 1.1890e+00,
     -7.0200e-01,-6.3600e-01, 4.2000e-01, 3.3600e-01,-3.5410e+00, 6.9000e-02,
     -2.3840e+00,-4.3000e-01,-2.7100e-01,-8.7000e-01,-1.2580e+00,-4.7000e-02,
     -7.9100e-01, 4.2900e-01, 1.8150e+00,-1.2800e-01, 4.7800e-01,-1.4800e-01,
      8.5700e-01,-7.9400e-01,-1.7210e+00,-4.0500e-01, 1.2040e+00,-1.0990e+00,
      1.5480e+00
    },
    {-4.4000e-01, 1.1280e+00,-1.1440e+00,-6.2800e-01,-2.3200e-01, 7.0000e-01,
     -6.1400e-01,-2.6800e-01, 6.6800e-01,-1.3100e-01,-2.2900e+00, 6.4000e-02,
     -1.4870e+00,-8.1000e-02,-3.1400e-01,-1.2680e+00,-1.1650e+00, 1.6000e-02,
     -6.9100e-01, 5.8800e-01, 1.6650e+00, 3.4700e-01, 6.2800e-01,-5.7000e-01,
      1.2700e+00,-1.5200e-01,-1.9430e+00,-4.1200e-01, 1.4830e+00,-6.3700e-01,
      1.1490e+00
    },
    {-4.5500e-01, 1.1970e+00,-1.3540e+00,-8.6000e-02,-2.9200e-01, 4.2900e-01,
      6.0000e-01, 2.0400e+00, 9.2800e-01, 9.0700e-01,-2.6900e+00, 1.9000e-01,
     -1.8680e+00,-3.8000e-02,-5.0600e-01,-1.6850e+00,-1.0860e+00,-2.3300e-01,
     -1.1020e+00, 8.2200e-01, 1.8950e+00, 9.0000e-03, 8.3000e-01,-3.4000e-01,
      1.6390e+00,-5.1800e-01,-1.3920e+00, 2.6400e-01, 1.3780e+00,-5.1500e-01,
      1.2270e+00
    },
    {-5.4000e-01, 9.4800e-01,-1.3660e+00,-3.4500e-01,-2.0500e-01, 1.5100e+00,
      2.8800e-01,-9.1900e-01, 4.3300e-01,-4.0000e-02,-2.7090e+00, 3.2300e-01,
     -1.7920e+00, 7.6000e-02,-5.3100e-01,-2.0610e+00,-1.8640e+00, 3.2800e-01,
     -1.5000e+00, 5.6000e-01, 1.3470e+00, 7.0000e-03, 4.5300e-01,-3.7900e-01,
      9.7600e-01,-1.5800e-01,-1.7560e+00,-5.2900e-01, 1.5670e+00,-7.4600e-01,
      1.4590e+00
    },
    {-6.3400e-01, 9.4900e-01,-1.6940e+00,-3.1900e-01,-1.7100e-01, 1.5380e+00,
      7.8000e-02,-7.8500e-01,-8.8000e-02, 3.3800e-01,-2.2870e+00, 2.3400e-01,
     -1.4470e+00,-2.8000e-02,-2.2500e-01,-1.3200e+00,-6.9600e-01, 3.2900e-01,
     -3.2700e-01,-1.6700e-01, 1.6370e+00, 7.8000e-02, 4.0000e-01,-0.0000e+00,
      8.8400e-01,-7.7400e-01,-1.5640e+00,-1.1960e+00, 1.7170e+00,-1.0920e+00,
      2.2180e+00
    },
    {-3.1100e-01, 1.6110e+00,-1.9180e+00,-1.4300e-01,-1.5100e-01, 1.7040e+00,
     -1.0500e-01,-1.2260e+00, 2.0000e-01, 1.7100e-01,-2.6580e+00,-6.6500e-01,
      1.5900e-01,-1.9400e-01,-1.5100e+00,-1.5640e+00,-1.1340e+00,-1.7500e-01,
     -8.7200e-01, 1.6800e-01, 1.5450e+00,-1.7600e-01, 1.5200e-01,-3.7800e-01,
      1.0200e+00,-1.1940e+00,-9.4700e-01,-9.3700e-01,-2.9500e-01,-9.2500e-01,
      9.9800e-01
    },
    {-9.1000e-02, 1.5040e+00,-1.6890e+00,-6.0000e-01,-6.2400e-01, 2.6700e-01,
      1.0110e+00,-1.4440e+00, 6.2200e-01, 4.3800e-01,-6.6200e-01,-4.4400e-01,
     -1.6000e-01, 3.6600e-01,-1.4320e+00,-5.2000e-01,-1.3420e+00, 5.4000e-02,
     -1.2020e+00, 6.5900e-01,-4.7900e-01, 2.1800e-01, 1.3600e-01, 1.3110e+00,
     -3.3700e-01,-5.3700e-01,-1.0170e+00,-7.6300e-01,-9.0600e-01,-9.9300e-01,
     -2.9900e-01
    },
    {-7.5700e-01, 2.3050e+00,-2.0440e+00,-2.2000e-02,-2.3800e-01, 8.3200e-01,
     -7.1200e-01,-1.3400e+00, 2.5500e-01, 1.1190e+00,-1.7590e+00,-3.5000e-01,
     -1.4270e+00, 3.6100e-01,-3.0600e+00,-1.6400e+00,-2.0120e+00,-1.7800e-01,
     -2.0240e+00, 5.4000e-01,-3.7720e+00, 1.3440e+00,-1.6100e+00,-1.7880e+00,
     -1.1050e+00, 1.7600e-01,-1.5990e+00,-4.8400e-01,-8.6300e-01,-8.5300e-01,
      1.2130e+00
    },
    {-1.6000e-02, 1.9610e+00,-1.7270e+00,-1.2300e-01,-9.6700e-01, 1.1860e+00,
     -3.3700e-01,-3.2080e+00, 2.0070e+00, 3.7400e-01,-1.2190e+00,-7.4600e-01,
      1.4600e-01, 2.1230e+00, 9.2800e-01,-1.8060e+00,-1.6380e+00, 9.6500e-01,
     -1.6440e+00,-8.6000e-02,-3.9150e+00, 7.7200e-01,-2.5520e+00,-5.9900e-01,
     -4.5100e-01, 5.5200e-01,-1.0940e+00,-1.2170e+00, 5.2800e-01,-1.0810e+00,
      7.5700e-01
    },
    {-5.8200e-01, 1.6580e+00,-1.5260e+00,-6.8100e-01,-7.2800e-01, 1.7010e+00,
     -5.9900e-01,-3.6120e+00, 2.4330e+00, 6.8900e-01,-3.2100e-01,-2.0720e+00,
      1.2200e+00, 2.7350e+00, 8.2200e-01,-1.7420e+00,-1.2040e+00, 4.9200e-01,
     -6.6900e-01, 1.0000e-02,-4.5240e+00, 7.1600e-01,-2.7160e+00,-8.3700e-01,
     -5.2700e-01, 1.8500e-01,-1.0200e+00,-9.3100e-01, 3.2000e-01,-1.2890e+00,
      1.1490e+00
    },
    {-9.5900e-01, 1.7040e+00,-1.6790e+00,-2.2600e-01,-1.0760e+00, 1.8290e+00,
     -3.4700e-01,-4.2720e+00, 3.0020e+00, 6.9500e-01, 3.5000e-01,-9.4800e-01,
      1.9650e+00, 2.0860e+00, 9.8800e-01,-1.5930e+00,-1.6610e+00, 5.1200e-01,
     -1.2120e+00, 5.3500e-01,-3.1870e+00, 7.4200e-01,-1.7600e+00,-1.0290e+00,
     -2.3800e-01, 8.7300e-01,-1.0050e+00,-8.1200e-01, 7.6000e-01,-6.9000e-01,
      1.6740e+00
    },
    { 1.6600e-01, 1.3340e+00,-1.3030e+00,-1.2540e+00,-1.2770e+00, 8.8700e-01,
      7.0500e-01,-4.3180e+00, 3.5530e+00,-4.7800e-01,-1.1460e+00,-4.0610e+00,
      6.0520e+00, 1.4890e+00, 1.6380e+00,-3.1350e+00,-3.5440e+00, 5.7500e-01,
     -1.4790e+00, 1.5350e+00,-4.7510e+00, 1.0800e+00,-2.7480e+00,-8.4500e-01,
     -6.2600e-01, 4.9600e-01,-8.6100e-01,-8.7900e-01, 6.5200e-01,-1.2170e+00,
      1.1710e+00
    },
    { 5.3000e-01, 3.1810e+00,-2.0980e+00,-1.8790e+00,-3.9400e+00, 1.9310e+00,
     -4.4800e-01,-5.2230e+00, 2.7430e+00, 1.3100e+00, 3.9100e-01,-2.5390e+00,
      2.5050e+00, 5.2000e-01, 1.3440e+00,-2.9310e+00,-3.1980e+00, 6.2700e-01,
     -1.9260e+00, 1.1160e+00,-5.4620e+00, 1.7110e+00,-2.3080e+00,-1.2520e+00,
     -7.1200e-01, 8.0000e-01,-8.2700e-01,-1.0360e+00, 5.3200e-01,-9.3400e-01,
      1.3750e+00
    },
    { 1.3700e-01, 2.0730e+00,-6.7400e-01,-1.7590e+00,-2.9130e+00, 7.7100e-01,
     -8.1000e-02,-3.4230e+00, 2.2640e+00, 7.4600e-01, 2.9000e-01,-3.9800e-01,
      1.0310e+00, 6.1400e-01, 1.0600e-01,-2.4680e+00,-2.0750e+00,-6.6500e-01,
      1.5900e-01,-2.0900e-01,-4.2760e+00, 6.3700e-01,-2.6010e+00,-7.1700e-01,
     -2.5300e-01, 3.7800e-01,-1.9200e-01,-5.7600e-01, 1.6660e+00,-7.5800e-01,
      1.4420e+00
    },
    {-3.5910e+00,-5.6900e-01,-1.1090e+00, 8.6300e-01,-2.0320e+00, 1.1970e+00,
      6.5100e-01,-2.4570e+00, 1.8500e+00,-2.0200e-01,-3.1400e-01,-1.4950e+00,
      1.1210e+00, 3.8900e-01, 5.2900e-01,-1.6000e+00,-1.8140e+00, 8.5600e-01,
     -1.9950e+00, 5.8300e-01,-6.4900e+00, 1.9550e+00,-3.0920e+00,-1.5730e+00,
     -1.4680e+00,-5.9900e-01,-1.4580e+00,-1.1380e+00, 1.0320e+00,-1.1250e+00,
      8.0800e-01
    },
    {-3.1400e+00,-5.3900e-01,-1.3090e+00, 5.9500e-01,-2.7930e+00, 8.0900e-01,
      1.4110e+00,-2.8480e+00, 2.9760e+00, 2.4000e-02, 7.3000e-02,-6.7000e-01,
      6.7300e-01, 2.4300e-01, 2.8200e-01,-2.2160e+00,-3.4070e+00, 6.9000e-01,
     -1.4870e+00, 1.0720e+00,-4.6030e+00, 1.2330e+00,-2.4090e+00,-7.2900e-01,
     -8.6200e-01, 5.2600e-01,-3.9400e-01,-5.6800e-01, 1.8520e+00,-7.5700e-01,
      1.4670e+00
    },
    {-3.0980e+00,-4.5000e-02,-8.3300e-01, 1.1050e+00,-2.4810e+00, 1.9730e+00,
     -1.5070e+00,-4.1800e+00, 2.3730e+00, 1.6530e+00, 1.0000e-01,-5.7200e-01,
      1.0190e+00, 4.1400e-01, 1.4900e-01,-3.3650e+00,-2.6140e+00, 1.0010e+00,
     -2.4180e+00,-1.4200e-01,-6.0860e+00, 1.2210e+00,-3.1870e+00,-9.0900e-01,
     -9.3100e-01, 3.7200e-01,-8.1900e-01,-2.5900e-01, 1.7480e+00,-4.3200e-01,
      1.4740e+00
    },
    {-3.3730e+00, 8.2800e-01,-5.6700e-01, 3.4400e-01,-2.7230e+00, 7.1400e-01,
     -3.9700e-01,-3.1170e+00, 1.2880e+00, 7.4700e-01, 4.8800e-01,-1.0810e+00,
      1.9100e+00, 7.1100e-01,-3.0000e-03,-3.9100e+00,-2.7590e+00, 6.8400e-01,
     -2.7540e+00, 6.1800e-01,-6.5480e+00, 1.4410e+00,-3.6540e+00,-6.6400e-01,
     -1.0830e+00,-3.6600e-01,-1.1610e+00,-5.1300e-01, 1.3560e+00,-7.2100e-01,
      1.4630e+00
    },
    {-2.9320e+00, 2.2000e-02,-2.4690e+00, 7.1800e-01,-1.8750e+00, 2.0470e+00,
     -1.0890e+00,-4.6470e+00, 1.5930e+00,-1.4700e-01, 9.0900e-01,-1.4200e+00,
      1.4960e+00, 8.6200e-01, 4.2500e-01,-4.5890e+00,-3.1080e+00, 1.0200e-01,
     -1.3790e+00, 6.7600e-01,-5.6540e+00, 6.8100e-01,-3.6900e+00,-2.9000e-01,
     -1.0500e-01,-5.5700e-01,-5.2600e-01,-3.4100e-01, 1.2470e+00,-7.8100e-01,
      1.1690e+00
    },
    {-1.6630e+00,-4.5500e-01,-1.2090e+00,-3.8100e-01,-2.2120e+00, 2.7270e+00,
      6.3400e-01,-3.4470e+00, 1.2110e+00, 4.9900e-01, 2.5300e-01,-8.3200e-01,
      1.7870e+00, 8.4500e-01, 9.8000e-02,-4.5340e+00,-3.2890e+00, 1.9610e+00,
     -1.6350e+00, 4.1000e-02,-2.0320e+00, 2.5500e-01,-1.2770e+00,-8.6000e-01,
     -3.7000e-01, 2.7700e-01,-4.2400e-01,-5.0400e-01, 1.3050e+00,-6.0300e-01,
      1.0110e+00
    },
    {-5.1700e-01,-1.8000e-02,-1.2270e+00, 3.4400e-01,-7.7900e-01, 1.9980e+00,
      1.9800e-01,-1.8820e+00, 3.0800e-01, 6.0000e-02, 6.2100e-01,-1.4280e+00,
      1.8660e+00, 8.9500e-01,-2.1900e-01,-3.2900e+00,-2.6490e+00, 1.1940e+00,
     -1.1970e+00,-9.9000e-02,-2.4700e+00, 4.1600e-01,-1.7190e+00,-2.6600e-01,
     -1.7300e-01, 4.5400e-01,-6.0000e-01,-7.0300e-01, 1.2920e+00,-8.6100e-01,
      1.3090e+00
    },
    {-1.5190e+00,-3.9100e-01,-5.1900e-01,-5.5000e-02,-2.0640e+00, 2.1110e+00,
     -3.9700e-01,-3.2990e+00, 2.0220e+00, 6.9000e-02, 5.9700e-01,-1.2800e+00,
      1.5260e+00, 1.4400e-01, 3.9500e-01,-2.6500e+00,-1.0080e+00, 6.5100e-01,
     -4.2000e+00, 1.2450e+00,-2.7330e+00, 2.4800e-01,-1.6380e+00,-2.0300e-01,
     -2.0700e-01, 8.9300e-01,-1.0640e+00,-8.4000e-01, 1.7480e+00,-9.4100e-01,
      2.2660e+00
    },
    {-1.4960e+00,-4.0700e-01,-3.5500e-01,-3.9000e-02,-8.6100e-01, 9.5800e-01,
      1.8600e-01,-3.3320e+00, 3.0070e+00, 7.2700e-01, 6.7100e-01,-1.1190e+00,
      1.1570e+00, 3.4100e-01, 5.0200e-01,-2.4590e+00,-2.7680e+00,-9.0000e-03,
     -3.4400e+00, 1.1420e+00,-3.6570e+00, 3.4000e-01,-2.0930e+00,-3.4300e-01,
     -4.1000e-01, 7.4000e-01,-1.2330e+00,-7.3200e-01, 1.7760e+00,-6.8200e-01,
      2.7280e+00
    },
    {-1.2950e+00, 2.9700e-01,-3.4900e-01, 5.6000e-02,-1.2630e+00, 8.3000e-01,
      8.4000e-02,-2.5430e+00, 9.4700e-01, 3.0000e-01, 4.5700e-01,-1.2160e+00,
      9.5500e-01, 3.3900e-01, 2.7100e-01,-1.6120e+00,-2.0750e+00, 3.0100e-01,
     -7.9000e-01, 6.9800e-01,-3.3180e+00, 8.6100e-01,-1.8700e+00,-2.9200e-01,
     -7.8800e-01,-2.9500e-01,-1.1800e+00,-9.1800e-01, 1.5330e+00,-1.2150e+00,
      1.5740e+00
    },
    {-1.2970e+00,-1.4200e-01,-5.4200e-01, 2.0400e-01,-6.5000e-01, 1.8280e+00,
     -7.6700e-01,-1.8500e+00, 2.1000e-02, 3.2700e-01, 7.4300e-01,-1.5660e+00,
      1.3370e+00, 2.3700e-01, 3.9700e-01,-2.1280e+00,-7.3100e-01, 8.6500e-01,
     -2.2520e+00, 3.5500e-01,-2.7520e+00, 4.9100e-01,-1.5170e+00,-2.3000e-02,
     -4.0500e-01, 1.9600e-01,-2.1580e+00,-5.6400e-01, 1.5040e+00,-4.5000e-01,
      2.3680e+00
    },
    {-1.3250e+00,-3.5700e-01,-1.5600e-01,-1.9000e-02,-6.2300e-01, 1.4660e+00,
     -4.7400e-01,-1.7340e+00, 5.7000e-01, 8.6600e-01, 3.7400e-01,-1.4440e+00,
      1.5650e+00, 3.1700e-01, 6.9300e-01,-1.7050e+00,-4.8200e-01, 1.1950e+00,
     -1.0490e+00, 1.5500e-01,-3.7070e+00, 4.8100e-01,-2.3500e+00,-2.8600e-01,
     -1.8200e-01,-3.7000e-01,-1.5030e+00,-9.6200e-01, 1.6600e+00,-7.0800e-01,
      1.2290e+00
    },
    {-9.8600e-01,-2.8700e-01,-1.5300e-01,-2.5200e-01,-9.2000e-02, 1.7100e+00,
     -7.1800e-01,-1.7230e+00, 5.7400e-01, 1.0620e+00, 7.8300e-01,-8.8400e-01,
      1.0210e+00, 3.3800e-01, 2.5600e-01,-8.5000e-02, 1.0800e-01, 1.3730e+00,
     -6.1700e-01, 7.4400e-01,-3.8870e+00, 7.0800e-01,-2.2100e+00,-4.3300e-01,
     -1.8600e-01,-5.2400e-01,-2.3900e+00,-4.3900e-01, 1.6910e+00, 2.3700e-01,
      1.8730e+00
    },
    {-1.2330e+00,-1.2400e+00,-2.0700e-01,-7.5000e-02,-5.9300e-01, 2.3900e+00,
     -4.2300e-01,-8.2500e-01, 9.4300e-01, 7.1700e-01, 4.6700e-01,-6.4900e-01,
      6.4700e-01, 2.6100e-01, 1.7200e-01,-5.0100e-01,-5.2700e-01, 1.9220e+00,
     -3.6500e-01, 1.0800e-01,-4.1970e+00, 9.8100e-01,-2.0470e+00,-8.9900e-01,
     -5.2000e-01, 8.0900e-01,-1.1130e+00,-6.0800e-01, 2.1000e+00, 1.8600e-01,
      1.5430e+00
    },
    {-1.2060e+00,-4.0700e-01,-3.3000e-02,-2.1700e-01,-9.9000e-01, 1.9190e+00,
     -1.8070e+00, 3.4600e-01, 3.8200e-01,-4.8700e-01, 8.8700e-01,-1.4200e-01,
      4.9900e-01, 1.4300e-01,-2.4000e-02,-3.0800e-01,-3.4400e-01, 1.0100e+00,
     -6.6000e-02, 2.2300e-01,-3.8650e+00, 5.6100e-01,-2.1230e+00,-2.4700e-01,
     -9.9000e-02,-7.9000e-02,-1.0550e+00, 1.9500e-01, 3.1040e+00, 9.1200e-01,
      2.8420e+00
    },
    {-1.9610e+00, 2.3800e-01,-8.5100e-01, 3.9600e-01,-1.5710e+00, 1.9230e+00,
     -1.8290e+00, 4.9800e-01, 2.0100e-01,-6.6500e-01, 1.4800e+00,-1.5200e-01,
      9.6200e-01, 6.6300e-01,-4.0000e-02,-7.5500e-01, 9.1800e-01, 2.0430e+00,
      3.1100e-01, 3.8500e-01,-3.7870e+00, 7.6300e-01,-2.1330e+00,-5.2100e-01,
     -3.2400e-01, 6.0000e-02,-1.3400e+00, 9.3200e-01, 2.3740e+00, 6.6000e-01,
      3.5180e+00
    },
    {-2.4990e+00, 4.0000e-01,-1.1860e+00, 1.6900e-01,-2.1320e+00, 2.4560e+00,
     -1.8170e+00,-2.2500e-01,-4.8500e-01, 9.6200e-01, 5.9600e-01,-1.2600e-01,
      7.0400e-01, 5.3700e-01,-2.8000e-01,-2.2630e+00, 2.0040e+00, 3.2010e+00,
      4.2900e-01,-4.6400e-01,-5.0090e+00, 1.3570e+00,-2.7330e+00,-6.9800e-01,
     -1.3460e+00,-4.9200e-01,-1.3010e+00, 1.0940e+00, 1.7780e+00, 5.0800e-01,
      2.1980e+00
    },
    {-2.2750e+00, 2.8500e-01,-7.1300e-01, 3.4000e-01,-1.5670e+00, 3.1630e+00,
     -3.3590e+00,-2.4200e-01, 3.1000e-02, 3.4200e-01, 4.2200e-01,-3.5700e-01,
      9.4200e-01, 2.7600e-01, 4.7200e-01,-2.7620e+00, 2.1650e+00, 3.1490e+00,
      8.3800e-01,-3.6500e-01,-5.1230e+00, 1.3510e+00,-2.8090e+00,-4.7100e-01,
     -1.2130e+00, 5.6000e-02,-1.2670e+00, 6.7900e-01, 1.2680e+00, 6.4300e-01,
      1.6680e+00
    },
    {-1.0060e+00, 2.4100e-01,-3.6700e-01, 1.2000e-01,-7.0600e-01, 2.4400e+00,
     -2.2940e+00, 1.6110e+00, 1.4740e+00,-6.4200e-01, 2.3510e+00,-3.7000e-02,
      2.1900e+00, 1.6860e+00,-6.5100e-01,-1.9100e+00, 5.4100e-01, 1.6900e+00,
      4.4000e-02, 2.7500e-01,-4.8310e+00, 1.3390e+00,-2.6450e+00,-1.2920e+00,
     -6.2400e-01,-1.3600e-01,-1.9040e+00, 7.2300e-01, 1.2640e+00, 6.7200e-01,
      2.0910e+00
    },
    {-7.2200e-01, 2.3800e-01,-6.0800e-01, 3.2000e-02,-7.3900e-01, 2.3170e+00,
     -2.5740e+00, 2.6000e-01, 3.6000e-02, 3.3500e-01, 1.8800e+00,-1.8100e-01,
      1.8670e+00, 1.3360e+00,-3.7100e-01,-1.9860e+00, 2.9800e-01, 1.5680e+00,
      1.4300e-01, 3.5300e-01,-4.8820e+00, 1.3670e+00,-2.5850e+00,-1.0720e+00,
     -9.9800e-01, 3.3600e-01,-1.5170e+00, 5.3600e-01, 9.4400e-01, 5.0300e-01,
      1.8720e+00
    },
    {-2.0480e+00, 4.9800e-01,-1.0930e+00, 3.8400e-01,-3.3290e+00, 3.7890e+00,
     -5.6500e-01, 1.9500e+00, 2.2640e+00,-2.3780e+00, 1.2100e-01,-9.5300e-01,
      1.5050e+00, 6.2000e-02, 1.6400e-01, 1.2140e+00, 1.7860e+00, 1.7200e-01,
      1.0460e+00,-4.6000e-01,-5.1690e+00, 1.3250e+00,-2.8990e+00,-2.2730e+00,
     -9.3400e-01,-4.9600e-01,-8.0900e-01, 8.5000e-01, 1.4430e+00, 7.3600e-01,
      1.3300e+00
    },
    {-2.4660e+00, 6.5300e-01,-9.4600e-01, 3.5700e-01,-1.4690e+00, 4.3320e+00,
     -2.2700e+00, 1.1470e+00, 4.1100e-01,-1.0990e+00, 5.7900e-01,-1.5700e+00,
      2.1230e+00,-6.0800e-01, 4.1500e-01, 8.5300e-01, 2.9600e-01, 4.6800e-01,
      4.5800e-01, 5.9000e-02,-5.8450e+00, 5.5100e-01,-3.8950e+00,-1.9400e-01,
     -7.7400e-01,-1.2650e+00,-2.1420e+00, 5.8800e-01, 8.1900e-01, 1.8990e+00,
      2.6120e+00
    },
    {-1.6290e+00, 6.4400e-01,-2.5200e-01, 2.8100e-01,-1.0570e+00, 5.0860e+00,
     -1.6880e+00, 9.4800e-01, 1.2490e+00,-5.9200e-01,-7.0000e-03,-5.4000e-01,
      1.0400e+00, 2.6300e-01, 3.3600e-01, 1.3870e+00, 1.0650e+00, 3.8400e-01,
      3.3600e-01,-1.6000e-02,-5.0300e+00, 8.9400e-01,-2.8000e+00,-4.7200e-01,
     -6.6300e-01,-8.1300e-01,-1.1080e+00, 6.6100e-01, 1.6410e+00, 1.3790e+00,
      2.1380e+00
    }
  };


  double netfun(std::vector<double>& in, const double* w)
  {
    double x00 = in[0];
    double x01 = in[1];
    double x02 = in[2];
    double x03 = in[3];
    double x;

    //Layer 1, Node 0
    x = w[0];
    x = x + w[1] * x00;
    x = x + w[2] * x01;
    x = x + w[3] * x02;
    x = x + w[4] * x03;
    double x10 = tanh(x);

    //Layer 1, Node 1
    x = w[5];
    x = x + w[6] * x00;
    x = x + w[7] * x01;
    x = x + w[8] * x02;
    x = x + w[9] * x03;
    double x11 = tanh(x);

    //Layer 1, Node 2
    x = w[10];
    x = x + w[11] * x00;
    x = x + w[12] * x01;
    x = x + w[13] * x02;
    x = x + w[14] * x03;
    double x12 = tanh(x);

    //Layer 1, Node 3
    x = w[15];
    x = x + w[16] * x00;
    x = x + w[17] * x01;
    x = x + w[18] * x02;
    x = x + w[19] * x03;
    double x13 = tanh(x);

    //Layer 1, Node 4
    x = w[20];
    x = x + w[21] * x00;
    x = x + w[22] * x01;
    x = x + w[23] * x02;
    x = x + w[24] * x03;
    double x14 = tanh(x);

    //Layer 2, Node 0
    x = w[25];
    x = x + w[26] * x10;
    x = x + w[27] * x11;
    x = x + w[28] * x12;
    x = x + w[29] * x13;
    x = x + w[30] * x14;
    double x20 = 1.0/(1.0+exp(-x));
    return x20;
  }
} // End anonymous namespace

//-----------------------------------------------------------------------------
// Compute average over networks. Default is to use all networks
//-----------------------------------------------------------------------------

double wino(std::vector<double>& inputs,
            int first=0,
            int last=nnetworks-1)
{
  if ( first < 0 ) first = 0;
  if ( last  < 0 ) last  = nnetworks-1;
  if ( last  > nnetworks-1 ) last = nnetworks-1;
  if ( first > last )
    {
      std::cerr << "** wino ** first-index > last-index"
                << std::endl; exit(3);
    }

  // Compute average over networks
  std::vector<double> in(ninputs);
  in[0] = (inputs[0] - mean[0]) / sigma[0];
  in[1] = (inputs[1] - mean[1]) / sigma[1];
  in[2] = (inputs[2] - mean[2]) / sigma[2];
  in[3] = (inputs[3] - mean[3]) / sigma[3];

  int   n = last - first + 1;
  double x = 0.0;
  for(int i=first; i <= last; i++) x += netfun(in, weight[i]);
  x /= n;
  return x;
}

double wino(double SO2tota,
            double alcohol,
            double sulfate,
            double SO2free,
            int first=0, int last=nnetworks-1)
{
  std::vector<double> in(ninputs);
  in[0] = SO2tota;
  in[1] = alcohol;
  in[2] = sulfate;
  in[3] = SO2free;
  return wino(in, first, last);
}
